       48.642538      -87.290612     -0.60323715
       48.641690      -87.290955     -0.61097717
       48.640843      -87.291298     -0.61871672
       48.639997      -87.291642     -0.61097717
       48.639150      -87.291985     -0.61871672
       48.638303      -87.292328     -0.62316513
       48.637457      -87.292670     -0.63090467
       48.636609      -87.293013     -0.61542511
       48.635762      -87.293356     -0.62316513
       48.634915      -87.293699     -0.62316513
       48.634068      -87.294043     -0.62316513
       48.633221      -87.294386     -0.62316513
       48.632374      -87.294729     -0.62316513
       48.631527      -87.295072     -0.61542511
       48.630680      -87.295415     -0.60768557
       48.629833      -87.295759     -0.61542511
       48.628986      -87.296103     -0.61402607
       48.628139      -87.296446     -0.61402607
       48.627292      -87.296789     -0.62176561
       48.626446      -87.297133     -0.61402607
       48.625599      -87.297476     -0.61402607
       48.624751      -87.297817     -0.61402607
       48.623904      -87.298159     -0.62176561
       48.623057      -87.298504     -0.61402607
       48.622211      -87.298848     -0.61402607
       48.621364      -87.299190     -0.61402607
       48.620517      -87.299532     -0.59854650
       48.619670      -87.299875     -0.61085796
       48.618824      -87.300219     -0.61859798
       48.617977      -87.300562     -0.61085796
       48.617130      -87.300905     -0.61859798
       48.616283      -87.301248     -0.61085796
       48.615436      -87.301590     -0.61859798
       48.614590      -87.301933     -0.63407755
       48.613743      -87.302276     -0.63407755
       48.612896      -87.302619     -0.63407755
       48.612050      -87.302963     -0.64029217
       48.611203      -87.303306     -0.64334106
       48.610357      -87.303648     -0.63560152
       48.609510      -87.303990     -0.64334106
       48.608663      -87.304333     -0.64334106
       48.607815      -87.304676     -0.65108061
       48.606969      -87.305019     -0.65108061
       48.606122      -87.305362     -0.64334106
       48.605275      -87.305705     -0.64334106
       48.604428      -87.306046     -0.65108061
       48.603582      -87.306390     -0.64334106
       48.602735      -87.306734     -0.65108061
       48.601888      -87.307077     -0.64638424
       48.601041      -87.307419     -0.64638424
       48.600194      -87.307762     -0.66186380
       48.599346      -87.308106     -0.63864470
       48.598499      -87.308447     -0.64638424
       48.597652      -87.308790     -0.64638424
       48.596805      -87.309133     -0.63864470
       48.595959      -87.309477     -0.64638424
       48.595112      -87.309819     -0.64638424
       48.594265      -87.310161     -0.63864470
       48.593418      -87.310504     -0.64638424
       48.592571      -87.310847     -0.66186380
       48.591724      -87.311189     -0.65412378
       48.590877      -87.311532     -0.65412378
       48.590029      -87.311874     -0.64638424
       48.589182      -87.312217     -0.64638424
       48.588335      -87.312560     -0.65412378
       48.587489      -87.312903     -0.64638424
       48.586642      -87.313246     -0.64638424
       48.585795      -87.313589     -0.65412378
       48.584948      -87.313931     -0.64638424
       48.584101      -87.314274     -0.64650965
       48.583254      -87.314616     -0.63103056
       48.582407      -87.314959     -0.63877010
       48.581560      -87.315302     -0.63103056
       48.580713      -87.315644     -0.63583422
       48.579866      -87.315987     -0.62035513
       48.579018      -87.316330     -0.62809467
       48.578171      -87.316673     -0.62035513
       48.577324      -87.317015     -0.62809467
       48.576478      -87.317357     -0.62809467
       48.575631      -87.317699     -0.62809467
       48.574783      -87.318042     -0.61272192
       48.573936      -87.318385     -0.61272192
       48.573090      -87.318728     -0.61272192
       48.572243      -87.319071     -0.62046146
       48.571397      -87.319412     -0.62046146
       48.570550      -87.319754     -0.62046146
       48.569703      -87.320097     -0.62046146
       48.568856      -87.320439     -0.61272192
       48.568009      -87.320782     -0.61272192
       48.567163      -87.321125     -0.60498190
       48.566316      -87.321468     -0.60345507
       48.565469      -87.321810     -0.61119509
       48.564622      -87.322151     -0.60345507
       48.563776      -87.322493     -0.61119509
       48.562929      -87.322837     -0.61119509
       48.562082      -87.323180     -0.61119509
       48.561235      -87.323522     -0.61893463
       48.560388      -87.323865     -0.61893463
       48.559541      -87.324207     -0.60345507
       48.558695      -87.324550     -0.61119509
       48.557848      -87.324894     -0.61893463
       48.557001      -87.325236     -0.61435032
       48.556155      -87.325577     -0.60661077
       48.555308      -87.325919     -0.60661077
       48.554460      -87.326263     -0.60661077
       48.553613      -87.326605     -0.62208986
       48.552767      -87.326947     -0.60661077
       48.551920      -87.327290     -0.60661077
       48.551073      -87.327631     -0.61435032
       48.550225      -87.327973     -0.59887075
       48.549378      -87.328316     -0.60803556
       48.548531      -87.328659     -0.61577559
       48.547685      -87.329002     -0.62176561
       48.546838      -87.329344     -0.62950563
       48.545991      -87.329687     -0.62176561
       48.545144      -87.330029     -0.62950563
       48.544297      -87.330371     -0.62950563
       48.543450      -87.330713     -0.62950563
       48.542603      -87.331055     -0.62950563
       48.541756      -87.331398     -0.62950563
       48.540909      -87.331740     -0.62176561
       48.540062      -87.332083     -0.62176561
       48.539214      -87.332424     -0.64942932
       48.538367      -87.332767     -0.64168978
       48.537520      -87.333109     -0.63394976
       48.536673      -87.333451     -0.64168978
       48.535826      -87.333793     -0.64168978
       48.534978      -87.334136     -0.64942932
       48.534131      -87.334479     -0.64942932
       48.533284      -87.334821     -0.64168978
       48.532437      -87.335163     -0.65716887
       48.531590      -87.335505     -0.64942932
       48.530744      -87.335849     -0.64168978
       48.529896      -87.336191     -0.63560152
       48.529049      -87.336533     -0.62786150
       48.528202      -87.336875     -0.63560152
       48.527355      -87.337216     -0.62786150
       48.526508      -87.337557     -0.63560152
       48.525661      -87.337900     -0.62786150
       48.524814      -87.338243     -0.62786150
       48.523966      -87.338586     -0.62786150
       48.523119      -87.338929     -0.64334106
       48.522273      -87.339270     -0.64334106
       48.521426      -87.339612     -0.64168978
       48.520579      -87.339954     -0.64942932
       48.519732      -87.340296     -0.64168978
       48.518885      -87.340637     -0.64168978
       48.518038      -87.340980     -0.65399551
       48.517191      -87.341322     -0.65399551
       48.516345      -87.341664     -0.64625597
       48.515498      -87.342005     -0.64625597
       48.514652      -87.342348     -0.64625597
       48.513805      -87.342690     -0.65399551
       48.512957      -87.343033     -0.65399551
       48.512110      -87.343375     -0.62798166
       48.511263      -87.343717     -0.62798166
       48.510417      -87.344060     -0.62024164
       48.509569      -87.344401     -0.62798166
       48.508722      -87.344743     -0.62798166
       48.507875      -87.345085     -0.64346075
       48.507028      -87.345427     -0.62798166
       48.506182      -87.345769     -0.62798166
       48.505335      -87.346111     -0.63572121
       48.504488      -87.346452     -0.63572121
       48.503641      -87.346794     -0.63572121
       48.502795      -87.347137     -0.62657070
       48.501948      -87.347479     -0.63431025
       48.501100      -87.347822     -0.62657070
       48.500253      -87.348164     -0.62657070
       48.499406      -87.348505     -0.62657070
       48.498560      -87.348847     -0.62657070
       48.497712      -87.349188     -0.61883116
       48.496865      -87.349530     -0.61883116
       48.496018      -87.349872     -0.61883116
       48.495172      -87.350214     -0.63431025
       48.494324      -87.350558     -0.63572121
       48.493477      -87.350900     -0.62798166
       48.492630      -87.351241     -0.64346075
       48.491784      -87.351584     -0.62024164
       48.490936      -87.351925     -0.62798166
       48.490088      -87.352266     -0.63572121
       48.489241      -87.352607     -0.63572121
       48.488394      -87.352949     -0.62798166
       48.487547      -87.353291     -0.62798166
       48.486700      -87.353634     -0.63255262
       48.485853      -87.353977     -0.64029217
       48.485006      -87.354319     -0.63103056
       48.484159      -87.354661     -0.63877010
       48.483313      -87.355001     -0.63877010
       48.482464      -87.355343     -0.63877010
       48.481617      -87.355685     -0.62329054
       48.480769      -87.356026     -0.62329054
       48.479922      -87.356369     -0.63103056
       48.479074      -87.356711     -0.63103056
       48.478227      -87.357052     -0.60007143
       48.477379      -87.357394     -0.62329054
       48.476533      -87.357735     -0.61555099
       48.475686      -87.358077     -0.61097717
       48.474839      -87.358419     -0.62645674
       48.473992      -87.358761     -0.61871672
       48.473145      -87.359102     -0.61871672
       48.472298      -87.359444     -0.62645674
       48.471451      -87.359786     -0.61871672
       48.470604      -87.360127     -0.62645674
       48.469757      -87.360468     -0.61871672
       48.468910      -87.360810     -0.62645674
       48.468063      -87.361152     -0.61871672
       48.467216      -87.361494     -0.61577559
       48.466369      -87.361835     -0.60803556
       48.465522      -87.362176     -0.60803556
       48.464675      -87.362518     -0.60803556
       48.463828      -87.362859     -0.60803556
       48.462981      -87.363201     -0.60803556
       48.462133      -87.363543     -0.60803556
       48.461286      -87.363883     -0.60803556
       48.460439      -87.364224     -0.60803556
       48.459593      -87.364566     -0.60803556
       48.458745      -87.364907     -0.60029602
       48.457899      -87.365249     -0.61883116
       48.457052      -87.365591     -0.60335159
       48.456205      -87.365932     -0.60335159
       48.455358      -87.366273     -0.61402607
       48.454511      -87.366614     -0.61402607
       48.453663      -87.366955     -0.60628605
       48.452817      -87.367298     -0.61402607
       48.451970      -87.367639     -0.60628605
       48.451123      -87.367980     -0.60628605
       48.450275      -87.368321     -0.61402607
       48.449428      -87.368662     -0.61085796
       48.448580      -87.369002     -0.62633753
       48.447733      -87.369343     -0.61085796
       48.446886      -87.369685     -0.61859798
       48.446039      -87.370026     -0.62633753
       48.445192      -87.370367     -0.61859798
       48.444345      -87.370709     -0.61859798
       48.443498      -87.371050     -0.61085796
       48.442651      -87.371392     -0.61859798
       48.441804      -87.371734     -0.61859798
       48.440957      -87.372075     -0.61085796
       48.440110      -87.372415     -0.60781097
       48.439263      -87.372756     -0.60781097
       48.438415      -87.373097     -0.61555099
       48.437568      -87.373438     -0.60781097
       48.436722      -87.373779     -0.60007143
       48.435874      -87.374120     -0.60007143
       48.435027      -87.374461     -0.59233189
       48.434179      -87.374803     -0.61555099
       48.433332      -87.375144     -0.60007143
       48.432485      -87.375486     -0.59233189
       48.431637      -87.375826     -0.60781097
       48.430789      -87.376167     -0.58623409
       48.429942      -87.376506     -0.58623409
       48.429096      -87.376847     -0.57849407
       48.428249      -87.377189     -0.59397364
       48.427402      -87.377529     -0.58623409
       48.426553      -87.377870     -0.58623409
       48.425706      -87.378210     -0.57075453
       48.424859      -87.378551     -0.57075453
       48.424012      -87.378893     -0.56770086
       48.423164      -87.379233     -0.56770086
       48.422317      -87.379574     -0.56770086
       48.421470      -87.379915     -0.57544041
       48.420622      -87.380256     -0.55996084
       48.419775      -87.380597     -0.57544041
       48.418928      -87.380938     -0.56770086
       48.418080      -87.381278     -0.56770086
       48.417233      -87.381618     -0.57544041
       48.416385      -87.381959     -0.55996084
       48.415538      -87.382300     -0.56770086
       48.414691      -87.382641     -0.57544041
       48.413844      -87.382982     -0.56770086
       48.412997      -87.383323     -0.57227850
       48.412149      -87.383663     -0.57227850
       48.411301      -87.384004     -0.56453848
       48.410454      -87.384343     -0.57227850
       48.409608      -87.384683     -0.57227850
       48.408760      -87.385024     -0.56453848
       48.407912      -87.385364     -0.56453848
       48.407065      -87.385705     -0.57227850
       48.406217      -87.386045     -0.57227850
       48.405371      -87.386386     -0.57227850
       48.404523      -87.386727     -0.57989931
       48.403676      -87.387066     -0.57989931
       48.402829      -87.387406     -0.57989931
       48.401981      -87.387746     -0.57215929
       48.401133      -87.388086     -0.57215929
       48.400286      -87.388427     -0.58763885
       48.399439      -87.388768     -0.57989931
       48.398592      -87.389109     -0.57989931
       48.397745      -87.389449     -0.56441975
       48.396897      -87.389789     -0.56441975
       48.396049      -87.390129     -0.57215929
       48.395202      -87.390469     -0.57837439
       48.394355      -87.390810     -0.57063437
       48.393509      -87.391150     -0.57063437
       48.392662      -87.391490     -0.56453848
       48.391814      -87.391830     -0.56453848
       48.390967      -87.392170     -0.58001804
       48.390119      -87.392510     -0.57227850
       48.389272      -87.392851     -0.57227850
       48.388424      -87.393192     -0.57227850
       48.387578      -87.393531     -0.58001804
       48.386731      -87.393871     -0.57227850
       48.385884      -87.394211     -0.56312323
       48.385037      -87.394551     -0.56312323
       48.384190      -87.394892     -0.56312323
       48.383343      -87.395232     -0.56312323
       48.382496      -87.395573     -0.56312323
       48.381648      -87.395913     -0.57860279
       48.380801      -87.396253     -0.56312323
       48.379953      -87.396593     -0.56312323
       48.379106      -87.396934     -0.57086277
       48.378260      -87.397273     -0.56312323
       48.377413      -87.397613     -0.57672644
       48.376566      -87.397954     -0.59220600
       48.375719      -87.398294     -0.58446646
       48.374872      -87.398635     -0.59220600
       48.374025      -87.398976     -0.59220600
       48.373177      -87.399316     -0.57672644
       48.372330      -87.399656     -0.57672644
       48.371483      -87.399996     -0.58446646
       48.370636      -87.400335     -0.59220600
       48.369789      -87.400675     -0.57672644
       48.368941      -87.401016     -0.59220600
       48.368094      -87.401358     -0.57825041
       48.367247      -87.401698     -0.57825041
       48.366399      -87.402038     -0.58599043
       48.365552      -87.402378     -0.57825041
       48.364705      -87.402719     -0.57825041
       48.363859      -87.403058     -0.58599043
       48.363012      -87.403397     -0.57051086
       48.362165      -87.403736     -0.57051086
       48.361316      -87.404077     -0.56441975
       48.360469      -87.404418     -0.57989931
       48.359622      -87.404758     -0.56441975
       48.358775      -87.405098     -0.56453848
       48.357927      -87.405438     -0.56453848
       48.357080      -87.405778     -0.55679893
       48.356233      -87.406118     -0.56453848
       48.355386      -87.406459     -0.55679893
       48.354539      -87.406799     -0.56453848
       48.353691      -87.407139     -0.56453848
       48.352843      -87.407481     -0.55679893
       48.351997      -87.407821     -0.56453848
       48.351150      -87.408160     -0.56453848
       48.350303      -87.408499     -0.54927683
       48.349455      -87.408839     -0.56475639
       48.348608      -87.409179     -0.56475639
       48.347761      -87.409520     -0.55701685
       48.346913      -87.409861     -0.54927683
       48.346066      -87.410201     -0.55701685
       48.345219      -87.410541     -0.56475639
       48.344372      -87.410880     -0.54153728
       48.343525      -87.411220     -0.55701685
       48.342678      -87.411559     -0.54927683
       48.341830      -87.411900     -0.54927683
       48.340983      -87.412240     -0.54937601
       48.340137      -87.412581     -0.54163599
       48.339290      -87.412920     -0.54163599
       48.338442      -87.413260     -0.54163599
       48.337595      -87.413600     -0.54163599
       48.336747      -87.413940     -0.56485558
       48.335900      -87.414280     -0.54937601
       48.335053      -87.414619     -0.55711555
       48.334207      -87.414960     -0.54937601
       48.333359      -87.415301     -0.54937601
       48.332512      -87.415641     -0.55701685
       48.331664      -87.415981     -0.54927683
       48.330817      -87.416321     -0.55701685
       48.329970      -87.416661     -0.55701685
       48.329123      -87.417000     -0.56770086
       48.328276      -87.417340     -0.56770086
       48.327429      -87.417680     -0.55996084
       48.326583      -87.418020     -0.55996084
       48.325735      -87.418361     -0.56770086
       48.324888      -87.418701     -0.56770086
       48.324040      -87.419041     -0.55996084
       48.323193      -87.419381     -0.55843687
       48.322347      -87.419722     -0.55843687
       48.321500      -87.420062     -0.55843687
       48.320652      -87.420402     -0.56617689
       48.319805      -87.420741     -0.55069733
       48.318958      -87.421081     -0.56617689
       48.318111      -87.421421     -0.56617689
       48.317263      -87.421762     -0.55843687
       48.316417      -87.422102     -0.55843687
       48.315570      -87.422441     -0.56617689
       48.314723      -87.422781     -0.55843687
       48.313875      -87.423122     -0.55080366
       48.313028      -87.423462     -0.55854368
       48.312180      -87.423801     -0.55080366
       48.311332      -87.424140     -0.55854368
       48.310486      -87.424480     -0.55080366
       48.309639      -87.424819     -0.54306412
       48.308792      -87.425159     -0.55854368
       48.307945      -87.425501     -0.55854368
       48.307098      -87.425841     -0.55080366
       48.306251      -87.426181     -0.55080366
       48.305403      -87.426521     -0.54917336
       48.304556      -87.426860     -0.55691290
       48.303709      -87.427200     -0.55691290
       48.302861      -87.427539     -0.57239246
       48.302014      -87.427879     -0.56465292
       48.301167      -87.428219     -0.56465292
       48.300320      -87.428559     -0.57239246
       48.299473      -87.428899     -0.55691290
       48.298626      -87.429239     -0.57239246
       48.297779      -87.429579     -0.56617689
       48.296931      -87.429919     -0.54295778
       48.296083      -87.430258     -0.56606340
       48.295236      -87.430597     -0.57380342
       48.294389      -87.430937     -0.56606340
       48.293542      -87.431277     -0.57380342
       48.292694      -87.431616     -0.56606340
       48.291847      -87.431956     -0.57380342
       48.291000      -87.432295     -0.56606340
       48.290153      -87.432634     -0.56606340
       48.289305      -87.432974     -0.55832386
       48.288458      -87.433314     -0.57380342
       48.287610      -87.433655     -0.57380342
       48.286763      -87.433995     -0.56323051
       48.285916      -87.434334     -0.55549097
       48.285069      -87.434673     -0.56323051
       48.284222      -87.435011     -0.56323051
       48.283375      -87.435351     -0.55549097
       48.282528      -87.435691     -0.55549097
       48.281680      -87.436031     -0.57097054
       48.280833      -87.436370     -0.56323051
       48.279985      -87.436710     -0.57097054
       48.279138      -87.437049     -0.56323051
       48.278291      -87.437389     -0.58763885
       48.277444      -87.437728     -0.60311842
       48.276596      -87.438067     -0.59537888
       48.275749      -87.438406     -0.59537888
       48.274901      -87.438745     -0.60311842
       48.274054      -87.439085     -0.59537888
       48.273207      -87.439424     -0.57989931
       48.272359      -87.439763     -0.59537888
       48.271513      -87.440103     -0.58763885
       48.270666      -87.440443     -0.58763885
       48.269818      -87.440782     -0.59537888
       48.268971      -87.441122     -0.58775806
       48.268124      -87.441461     -0.59549761
       48.267277      -87.441799     -0.59549761
       48.266430      -87.442137     -0.59865952
       48.265583      -87.442477     -0.59091997
       48.264735      -87.442817     -0.59091997
       48.263888      -87.443157     -0.59091997
       48.263041      -87.443496     -0.59091997
       48.262193      -87.443835     -0.58318043
       48.261346      -87.444175     -0.59865952
       48.260499      -87.444514     -0.56944084
       48.259652      -87.444854     -0.57718039
       48.258805      -87.445193     -0.56944084
       48.257958      -87.445532     -0.57718039
       48.257111      -87.445871     -0.57718039
       48.256263      -87.446210     -0.58491993
       48.255416      -87.446550     -0.58491993
       48.254569      -87.446889     -0.57718039
       48.253722      -87.447227     -0.57718039
       48.252875      -87.447566     -0.58491993
       48.252028      -87.447905     -0.57718039
       48.251181      -87.448244     -0.57565165
       48.250333      -87.448584     -0.57565165
       48.249486      -87.448923     -0.57565165
       48.248639      -87.449262     -0.57565165
       48.247792      -87.449601     -0.58339119
       48.246944      -87.449940     -0.56791210
       48.246096      -87.450280     -0.56791210
       48.245249      -87.450619     -0.58339119
       48.244401      -87.450958     -0.57565165
       48.243554      -87.451296     -0.56017208
       48.242707      -87.451633     -0.58339119
       48.241860      -87.451973     -0.58797550
       48.241013      -87.452313     -0.58023596
       48.240165      -87.452653     -0.58023596
       48.239318      -87.452991     -0.58023596
       48.238471      -87.453330     -0.58797550
       48.237623      -87.453669     -0.58023596
       48.236776      -87.454006     -0.56475639
       48.235929      -87.454345     -0.57249641
       48.235081      -87.454684     -0.57249641
       48.234234      -87.455023     -0.57565165
       48.233387      -87.455361     -0.57718039
       48.232539      -87.455700     -0.56170082
       48.231692      -87.456040     -0.55396128
       48.230845      -87.456380     -0.56944084
       48.229998      -87.456718     -0.56170082
       48.229151      -87.457056     -0.56170082
       48.228304      -87.457395     -0.56170082
       48.227456      -87.457733     -0.56170082
       48.226608      -87.458072     -0.55396128
       48.225761      -87.458410     -0.56170082
       48.224914      -87.458750     -0.56944084
       48.224066      -87.459088     -0.56017208
       48.223219      -87.459427     -0.56017208
       48.222373      -87.459766     -0.56017208
       48.221525      -87.460105     -0.56017208
       48.220678      -87.460443     -0.56791210
       48.219830      -87.460780     -0.55243254
       48.218983      -87.461119     -0.55243254
       48.218135      -87.461459     -0.55243254
       48.217288      -87.461798     -0.55243254
       48.216441      -87.462137     -0.56017208
       48.215593      -87.462475     -0.55243254
       48.214746      -87.462813     -0.54631567
       48.213899      -87.463150     -0.54631567
       48.213051      -87.463490     -0.54631567
       48.212204      -87.463828     -0.54631567
       48.211356      -87.464167     -0.55405521
       48.210509      -87.464506     -0.54631567
       48.209662      -87.464845     -0.54631567
       48.208814      -87.465183     -0.54631567
       48.207967      -87.465522     -0.55405521
       48.207120      -87.465860     -0.54631567
       48.206272      -87.466198     -0.54019690
       48.205424      -87.466536     -0.54793644
       48.204578      -87.466876     -0.54793644
       48.203730      -87.467215     -0.54019690
       48.202883      -87.467553     -0.54019690
       48.202035      -87.467891     -0.54793644
       48.201188      -87.468230     -0.53245687
       48.200341      -87.468569     -0.54019690
       48.199494      -87.468908     -0.52471733
       48.198647      -87.469246     -0.53245687
       48.197799      -87.469585     -0.54019690
       48.196951      -87.469923     -0.55701685
       48.196104      -87.470261     -0.55701685
       48.195256      -87.470599     -0.54927683
       48.194409      -87.470937     -0.56475639
       48.193561      -87.471275     -0.55701685
       48.192714      -87.471614     -0.55701685
       48.191867      -87.471953     -0.55701685
       48.191019      -87.472292     -0.56475639
       48.190172      -87.472630     -0.55701685
       48.189325      -87.472968     -0.55701685
       48.188477      -87.473306     -0.53236675
       48.187630      -87.473645     -0.54010630
       48.186782      -87.473983     -0.54784632
       48.185936      -87.474322     -0.54010630
       48.185089      -87.474661     -0.53236675
       48.184242      -87.474999     -0.54784632
       48.183394      -87.475337     -0.54010630
       48.182547      -87.475675     -0.54010630
       48.181700      -87.476013     -0.53236675
       48.180852      -87.476352     -0.54010630
       48.180004      -87.476689     -0.54784632
       48.179156      -87.477027     -0.53254080
       48.178309      -87.477365     -0.53254080
       48.177462      -87.477704     -0.52480078
       48.176616      -87.478042     -0.52480078
       48.175768      -87.478379     -0.53254080
       48.174920      -87.478717     -0.52480078
       48.174073      -87.479056     -0.52480078
       48.173226      -87.479394     -0.52480078
       48.172379      -87.479732     -0.52480078
       48.171531      -87.480070     -0.54028034
       48.170684      -87.480408     -0.53874874
       48.169837      -87.480747     -0.52480078
       48.168990      -87.481085     -0.53254080
       48.168141      -87.481422     -0.53254080
       48.167294      -87.481760     -0.53254080
       48.166446      -87.482098     -0.52480078
       48.165598      -87.482435     -0.54028034
       48.164751      -87.482773     -0.53254080
       48.163903      -87.483112     -0.53254080
       48.163057      -87.483450     -0.53254080
       48.162210      -87.483789     -0.54028034
       48.161363      -87.484128     -0.55099773
       48.160515      -87.484466     -0.55099773
       48.159667      -87.484803     -0.54325819
       48.158820      -87.485141     -0.55099773
       48.157973      -87.485478     -0.55099773
       48.157125      -87.485816     -0.55099773
       48.156278      -87.486154     -0.55873775
       48.155430      -87.486491     -0.55099773
       48.154583      -87.486829     -0.54325819
       48.153734      -87.487167     -0.54325819
       48.152887      -87.487504     -0.54325819
       48.152040      -87.487842     -0.54784632
       48.151193      -87.488181     -0.54784632
       48.150346      -87.488519     -0.54784632
       48.149498      -87.488857     -0.54784632
       48.148649      -87.489194     -0.54784632
       48.147803      -87.489532     -0.55558586
       48.146955      -87.489869     -0.55558586
       48.146107      -87.490206     -0.54010630
       48.145261      -87.490545     -0.55558586
       48.144413      -87.490883     -0.54010630
       48.143566      -87.491221     -0.53245687
       48.142719      -87.491559     -0.53245687
       48.141871      -87.491897     -0.54019690
       48.141024      -87.492234     -0.54019690
       48.140176      -87.492571     -0.54019690
       48.139328      -87.492909     -0.52633429
       48.138482      -87.493246     -0.53407431
       48.137635      -87.493584     -0.53407431
       48.136787      -87.493924     -0.51859474
       48.135940      -87.494262     -0.52633429
       48.135092      -87.494599     -0.53407431
       48.134244      -87.494936     -0.54640579
       48.133397      -87.495273     -0.53866625
       48.132550      -87.495611     -0.53866625
       48.131702      -87.495950     -0.53092623
       48.130855      -87.496288     -0.53092623
       48.130008      -87.496625     -0.53092623
       48.129160      -87.496962     -0.53866625
       48.128313      -87.497299     -0.53092623
       48.127466      -87.497636     -0.53866625
       48.126618      -87.497974     -0.53092623
       48.125770      -87.498312     -0.53092623
       48.124922      -87.498650     -0.55243254
       48.124075      -87.498988     -0.53695297
       48.123228      -87.499325     -0.56017208
       48.122381      -87.499662     -0.54469252
       48.121533      -87.499998     -0.55243254
       48.120686      -87.500336     -0.53695297
       48.119839      -87.500674     -0.53695297
       48.118991      -87.501011     -0.55243254
       48.118143      -87.501350     -0.54469252
       48.117295      -87.501688     -0.54469252
       48.116447      -87.502025     -0.54622126
       48.115600      -87.502361     -0.54622126
       48.114752      -87.502699     -0.55396128
       48.113905      -87.503037     -0.55396128
       48.113057      -87.503376     -0.54622126
       48.112211      -87.503712     -0.54622126
       48.111363      -87.504049     -0.55396128
       48.110516      -87.504387     -0.55396128
       48.109668      -87.504724     -0.54622126
       48.108821      -87.505062     -0.56944084
       48.107974      -87.505399     -0.54622126
       48.107126      -87.505736     -0.52326918
       48.106278      -87.506072     -0.53100920
       48.105430      -87.506410     -0.52326918
       48.104582      -87.506748     -0.51552963
       48.103736      -87.507084     -0.53100920
       48.102888      -87.507421     -0.52326918
       48.102041      -87.507759     -0.51552963
       48.101193      -87.508097     -0.52326918
       48.100345      -87.508435     -0.53100920
       48.099498      -87.508772     -0.52326918
       48.098651      -87.509110     -0.53100920
       48.097803      -87.509447     -0.54469252
       48.096956      -87.509784     -0.54469252
       48.096108      -87.510122     -0.54469252
       48.095261      -87.510459     -0.53695297
       48.094414      -87.510796     -0.55243254
       48.093566      -87.511133     -0.55243254
       48.092718      -87.511471     -0.54469252
       48.091871      -87.511808     -0.53695297
       48.091024      -87.512145     -0.54469252
       48.090176      -87.512483     -0.53695297
       48.089328      -87.512822     -0.54469252
       48.088481      -87.513159     -0.55243254
       48.087634      -87.513495     -0.52921343
       48.086786      -87.513833     -0.54469252
       48.085938      -87.514171     -0.52921343
       48.085090      -87.514507     -0.53695297
       48.084243      -87.514843     -0.54469252
       48.083396      -87.515180     -0.55243254
       48.082548      -87.515518     -0.53695297
       48.081700      -87.515856     -0.54469252
       48.080853      -87.516193     -0.54469252
       48.080005      -87.516530     -0.52318668
       48.079158      -87.516868     -0.52318668
       48.078311      -87.517206     -0.53092623
       48.077464      -87.517543     -0.53092623
       48.076616      -87.517881     -0.52318668
       48.075768      -87.518219     -0.52165508
       48.074921      -87.518556     -0.52939463
       48.074073      -87.518893     -0.52165508
       48.073224      -87.519231     -0.52939463
       48.072377      -87.519568     -0.51391554
       48.071529      -87.519905     -0.51407385
       48.070682      -87.520242     -0.50633430
       48.069834      -87.520580     -0.50633430
       48.068987      -87.520917     -0.50633430
       48.068139      -87.521254     -0.49859476
       48.067291      -87.521592     -0.51407385
       48.066444      -87.521929     -0.50633430
       48.065596      -87.522266     -0.50633430
       48.064749      -87.522603     -0.51407385
       48.063901      -87.522940     -0.49859476
       48.063054      -87.523278     -0.51407385
       48.062206      -87.523614     -0.50947046
       48.061358      -87.523952     -0.50947046
       48.060510      -87.524289     -0.50173092
       48.059662      -87.524626     -0.50947046
       48.058815      -87.524963     -0.50173092
       48.057967      -87.525300     -0.50947046
       48.057119      -87.525637     -0.50173092
       48.056272      -87.525974     -0.49399137
       48.055425      -87.526310     -0.50947046
       48.054577      -87.526648     -0.50947046
       48.053729      -87.526986     -0.50947046
       48.052881      -87.527322     -0.50786591
       48.052034      -87.527660     -0.50786591
       48.051186      -87.527997     -0.50012636
       48.050338      -87.528335     -0.51560545
       48.049491      -87.528671     -0.50786591
       48.048644      -87.529007     -0.51560545
       48.047797      -87.529344     -0.51560545
       48.046948      -87.529682     -0.51560545
       48.046101      -87.530019     -0.50786591
       48.045253      -87.530356     -0.50786591
       48.044406      -87.530693     -0.51867247
       48.043558      -87.531030     -0.51867247
       48.042711      -87.531366     -0.51867247
       48.041863      -87.531703     -0.51093292
       48.041016      -87.532040     -0.51867247
       48.040169      -87.532376     -0.51093292
       48.039321      -87.532713     -0.50319338
       48.038473      -87.533051     -0.51867247
       48.037625      -87.533389     -0.51867247
       48.036778      -87.533725     -0.51867247
       48.035930      -87.534061     -0.51867247
       48.035083      -87.534397     -0.50786591
       48.034236      -87.534735     -0.49238634
       48.033389      -87.535072     -0.51560545
       48.032541      -87.535409     -0.50786591
       48.031693      -87.535745     -0.50786591
       48.030846      -87.536082     -0.50786591
       48.029999      -87.536419     -0.50786591
       48.029151      -87.536756     -0.51560545
       48.028303      -87.537092     -0.50012636
       48.027455      -87.537429     -0.52334547
       48.026608      -87.537766     -0.51560545
       48.025761      -87.538103     -0.52326918
       48.024913      -87.538439     -0.51552963
       48.024065      -87.538776     -0.52326918
       48.023218      -87.539114     -0.50779009
       48.022370      -87.539451     -0.52326918
       48.021522      -87.539788     -0.52326918
       48.020674      -87.540126     -0.52326918
       48.019827      -87.540462     -0.52326918
       48.018980      -87.540798     -0.52326918
       48.018132      -87.541134     -0.50779009
       48.017285      -87.541471     -0.51552963
       48.016437      -87.541807     -0.51552963
       48.015588      -87.542143     -0.52326918
       48.014741      -87.542481     -0.52326918
       48.013893      -87.542818     -0.53100920
       48.013046      -87.543154     -0.53100920
       48.012199      -87.543491     -0.51253653
       48.011350      -87.543828     -0.51253653
       48.010502      -87.544165     -0.50479698
       48.009654      -87.544502     -0.50479698
       48.008807      -87.544838     -0.50479698
       48.007960      -87.545174     -0.55396128
       48.007112      -87.545510     -0.53848171
       48.006264      -87.545848     -0.54622126
       48.005417      -87.546184     -0.53848171
       48.004569      -87.546520     -0.53848171
       48.003721      -87.546857     -0.53074217
       48.002874      -87.547194     -0.53848171
       48.002026      -87.547531     -0.53848171
       48.001178      -87.547867     -0.53848171
       48.000331      -87.548202     -0.54622126
       47.999484      -87.548539     -0.52624702
       47.998636      -87.548875     -0.53398657
       47.997788      -87.549212     -0.52624702
       47.996940      -87.549550     -0.54172659
       47.996093      -87.549886     -0.53398657
       47.995245      -87.550222     -0.53398657
       47.994397      -87.550558     -0.53398657
       47.993550      -87.550894     -0.53398657
       47.992702      -87.551231     -0.51850748
       47.991854      -87.551567     -0.54172659
       47.991006      -87.551902     -0.52624702
       47.990158      -87.552239     -0.52326918
       47.989310      -87.552576     -0.52326918
       47.988463      -87.552913     -0.51552963
       47.987615      -87.553249     -0.51552963
       47.986768      -87.553585     -0.53100920
       47.985921      -87.553922     -0.51552963
       47.985073      -87.554258     -0.52326918
       47.984226      -87.554594     -0.52326918
       47.983378      -87.554930     -0.51552963
       47.982530      -87.555267     -0.52326918
       47.981682      -87.555602     -0.51552963
       47.980834      -87.555938     -0.53704786
       47.979987      -87.556274     -0.53542233
       47.979139      -87.556610     -0.55090189
       47.978291      -87.556946     -0.54316187
       47.977444      -87.557282     -0.53542233
       47.976596      -87.557618     -0.53542233
       47.975749      -87.557954     -0.53542233
       47.974901      -87.558290     -0.54316187
       47.974053      -87.558627     -0.53542233
       47.973205      -87.558964     -0.53542233
       47.972358      -87.559300     -0.52930832
       47.971510      -87.559636     -0.52930832
       47.970663      -87.559972     -0.52930832
       47.969815      -87.560309     -0.52930832
       47.968968      -87.560645     -0.52930832
       47.968120      -87.560981     -0.52930832
       47.967271      -87.561318     -0.52930832
       47.966424      -87.561654     -0.54478788
       47.965577      -87.561990     -0.52930832
       47.964728      -87.562325     -0.52930832
       47.963880      -87.562660     -0.52930832
       47.963033      -87.562996     -0.51544714
       47.962185      -87.563332     -0.52318668
       47.961338      -87.563668     -0.53092623
       47.960490      -87.564005     -0.52318668
       47.959642      -87.564342     -0.51544714
       47.958795      -87.564678     -0.51544714
       47.957947      -87.565015     -0.53092623
       47.957099      -87.565350     -0.50770712
       47.956252      -87.565685     -0.51544714
       47.955405      -87.566022     -0.51544714
       47.954557      -87.566359     -0.52930832
       47.953709      -87.566695     -0.52930832
       47.952862      -87.567030     -0.52930832
       47.952014      -87.567364     -0.52156878
       47.951166      -87.567699     -0.52930832
       47.950319      -87.568036     -0.52156878
       47.949471      -87.568373     -0.52156878
       47.948623      -87.568709     -0.52930832
       47.947776      -87.569044     -0.53695297
       47.946928      -87.569380     -0.52921343
       47.946080      -87.569717     -0.55243254
       47.945233      -87.570053     -0.55069733
       47.944385      -87.570389     -0.55069733
       47.943538      -87.570723     -0.55843687
       47.942690      -87.571060     -0.55069733
       47.941843      -87.571396     -0.54295778
       47.940995      -87.571732     -0.54295778
       47.940148      -87.572067     -0.53521776
       47.939301      -87.572403     -0.54295778
       47.938453      -87.572739     -0.55069733
       47.937605      -87.573075     -0.55069733
       47.936757      -87.573410     -0.55069733
       47.935909      -87.573745     -0.53216410
       47.935062      -87.574081     -0.53990412
       47.934214      -87.574417     -0.54764366
       47.933367      -87.574752     -0.53990412
       47.932519      -87.575088     -0.55538321
       47.931672      -87.575423     -0.53990412
       47.930824      -87.575759     -0.54764366
       47.929977      -87.576094     -0.55538321
       47.929129      -87.576430     -0.53990412
       47.928280      -87.576766     -0.53990412
       47.927432      -87.577101     -0.52777863
       47.926585      -87.577437     -0.52003908
       47.925737      -87.577772     -0.52003908
       47.924890      -87.578108     -0.52003908
       47.924042      -87.578443     -0.52777863
       47.923195      -87.578779     -0.52777863
       47.922347      -87.579114     -0.52003908
       47.921499      -87.579451     -0.52777863
       47.920651      -87.579787     -0.51229906
       47.919804      -87.580122     -0.52777863
       47.918956      -87.580457     -0.52777863
       47.918108      -87.580792     -0.52003908
       47.917260      -87.581127     -0.52777863
       47.916412      -87.581462     -0.52768278
       47.915564      -87.581797     -0.52768278
       47.914717      -87.582132     -0.53542233
       47.913869      -87.582467     -0.51994276
       47.913022      -87.582803     -0.52768278
       47.912174      -87.583138     -0.53542233
       47.911325      -87.583472     -0.53542233
       47.910478      -87.583808     -0.52768278
       47.909630      -87.584144     -0.53542233
       47.908783      -87.584479     -0.53379774
       47.907935      -87.584815     -0.53379774
       47.907088      -87.585150     -0.52605772
       47.906240      -87.585486     -0.54153728
       47.905392      -87.585822     -0.53379774
       47.904544      -87.586158     -0.53379774
       47.903696      -87.586493     -0.54153728
       47.902848      -87.586828     -0.53379774
       47.902001      -87.587163     -0.52605772
       47.901152      -87.587498     -0.52605772
       47.900304      -87.587833     -0.54295778
       47.899456      -87.588169     -0.54295778
       47.898609      -87.588505     -0.54295778
       47.897761      -87.588840     -0.53521776
       47.896914      -87.589175     -0.54295778
       47.896066      -87.589510     -0.55069733
       47.895218      -87.589846     -0.54295778
       47.894371      -87.590181     -0.54295778
       47.893524      -87.590516     -0.55069733
       47.892676      -87.590851     -0.54295778
       47.891828      -87.591186     -0.53521776
       47.890981      -87.591521     -0.55363321
       47.890132      -87.591856     -0.55363321
       47.889285      -87.592191     -0.56137276
       47.888437      -87.592526     -0.54589319
       47.887590      -87.592861     -0.56137276
       47.886742      -87.593196     -0.54589319
       47.885894      -87.593531     -0.55363321
       47.885047      -87.593867     -0.56137276
       47.884198      -87.594203     -0.55515528
       47.883350      -87.594537     -0.54741526
       47.882502      -87.594872     -0.53826952
       47.881655      -87.595207     -0.54600954
       47.880807      -87.595542     -0.54600954
       47.879959      -87.595878     -0.53826952
       47.879112      -87.596213     -0.53826952
       47.878265      -87.596547     -0.53826952
       47.877417      -87.596882     -0.53826952
       47.876569      -87.597217     -0.53052998
       47.875721      -87.597551     -0.54600954
       47.874874      -87.597885     -0.55374908
       47.874026      -87.598220     -0.54600954
       47.873179      -87.598555     -0.54295778
       47.872331      -87.598890     -0.53521776
       47.871483      -87.599225     -0.54295778
       47.870636      -87.599559     -0.53521776
       47.869788      -87.599895     -0.54295778
       47.868940      -87.600230     -0.54295778
       47.868091      -87.600566     -0.54295778
       47.867243      -87.600901     -0.53521776
       47.866395      -87.601236     -0.53521776
       47.865548      -87.601571     -0.53521776
       47.864700      -87.601905     -0.53521776
       47.863853      -87.602240     -0.54894018
       47.863005      -87.602574     -0.54894018
       47.862157      -87.602908     -0.55668020
       47.861309      -87.603242     -0.54120064
       47.860461      -87.603578     -0.56441975
       47.859613      -87.603913     -0.55668020
       47.858766      -87.604248     -0.54894018
       47.857918      -87.604583     -0.55668020
       47.857071      -87.604918     -0.54894018
       47.856222      -87.605252     -0.54894018
       47.855374      -87.605586     -0.55655241
       47.854527      -87.605921     -0.56429243
       47.853679      -87.606255     -0.55655241
       47.852831      -87.606590     -0.56429243
       47.851982      -87.606925     -0.55350733
       47.851135      -87.607260     -0.55350733
       47.850287      -87.607595     -0.54576778
       47.849439      -87.607929     -0.55350733
       47.848591      -87.608263     -0.55350733
       47.847744      -87.608598     -0.56124735
       47.846896      -87.608932     -0.55350733
       47.846048      -87.609267     -0.55655241
       47.845201      -87.609602     -0.55655241
       47.844353      -87.609937     -0.55655241
       47.843505      -87.610272     -0.55655241
       47.842657      -87.610608     -0.54881287
       47.841809      -87.610942     -0.54881287
       47.840961      -87.611276     -0.55655241
       47.840113      -87.611610     -0.55655241
       47.839265      -87.611945     -0.55655241
       47.838417      -87.612279     -0.54107285
       47.837569      -87.612613     -0.57783461
       47.836721      -87.612947     -0.57783461
       47.835874      -87.613282     -0.57783461
       47.835026      -87.613616     -0.57783461
       47.834179      -87.613950     -0.58557463
       47.833331      -87.614285     -0.57783461
       47.832483      -87.614619     -0.58557463
       47.831635      -87.614954     -0.57783461
       47.830787      -87.615288     -0.57783461
       47.829940      -87.615622     -0.57009506
       47.829093      -87.615957     -0.58557463
       47.828246      -87.616292     -0.54576778
       47.827398      -87.616627     -0.54576778
       47.826550      -87.616960     -0.55350733
       47.825701      -87.617294     -0.56124735
       47.824853      -87.617628     -0.55350733
       47.824005      -87.617963     -0.56898689
       47.823157      -87.618297     -0.55350733
       47.822310      -87.618631     -0.56124735
       47.821463      -87.618965     -0.55350733
       47.820615      -87.619301     -0.56898689
       47.819767      -87.619636     -0.55046415
       47.818919      -87.619970     -0.54436827
       47.818071      -87.620303     -0.54436827
       47.817223      -87.620637     -0.55210829
       47.816375      -87.620972     -0.54436827
       47.815528      -87.621307     -0.55210829
       47.814680      -87.621641     -0.55984783
       47.813833      -87.621976     -0.55984783
       47.812986      -87.622311     -0.55210829
       47.812138      -87.622643     -0.55210829
       47.811290      -87.622977     -0.54436827
       47.810442      -87.623312     -0.55350733
       47.809594      -87.623646     -0.56898689
       47.808746      -87.623980     -0.56124735
       47.807898      -87.624314     -0.55350733
       47.807050      -87.624648     -0.55350733
       47.806203      -87.624982     -0.56898689
       47.805355      -87.625316     -0.56898689
       47.804508      -87.625650     -0.56124735
       47.803659      -87.625984     -0.56124735
       47.802812      -87.626317     -0.56124735
       47.801964      -87.626651     -0.54576778
       47.801116      -87.626987     -0.56111860
       47.800268      -87.627322     -0.56885862
       47.799420      -87.627655     -0.56885862
       47.798572      -87.627988     -0.56885862
       47.797725      -87.628322     -0.56885862
       47.796877      -87.628656     -0.56885862
       47.796029      -87.628990     -0.56885862
       47.795182      -87.629324     -0.56111860
       47.794334      -87.629657     -0.56111860
       47.793486      -87.629991     -0.56111860
       47.792638      -87.630325     -0.55198622
       47.791791      -87.630660     -0.55198622
       47.790943      -87.630994     -0.55972624
       47.790095      -87.631327     -0.55198622
       47.789247      -87.631662     -0.54424667
       47.788399      -87.631995     -0.54424667
       47.787551      -87.632330     -0.53041363
       47.786703      -87.632665     -0.53815365
       47.785855      -87.632998     -0.54589319
       47.785007      -87.633332     -0.53815365
       47.784160      -87.633666     -0.55363321
       47.783311      -87.634000     -0.54589319
       47.782463      -87.634333     -0.53815365
       47.781614      -87.634667     -0.54589319
       47.780767      -87.635000     -0.54589319
       47.779919      -87.635335     -0.53815365
       47.779072      -87.635669     -0.54589319
       47.778224      -87.636003     -0.54589319
       47.777376      -87.636337     -0.55363321
       47.776529      -87.636671     -0.55363321
       47.775681      -87.637005     -0.54589319
       47.774833      -87.637339     -0.54589319
       47.773984      -87.637673     -0.54576778
       47.773136      -87.638007     -0.55350733
       47.772289      -87.638340     -0.55350733
       47.771441      -87.638673     -0.55350733
       47.770594      -87.639007     -0.53802776
       47.769746      -87.639341     -0.55350733
       47.768898      -87.639675     -0.55350733
       47.768050      -87.640008     -0.56124735
       47.767202      -87.640342     -0.55350733
       47.766355      -87.640675     -0.55350733
       47.765507      -87.641009     -0.54563904
       47.764658      -87.641343     -0.56885862
       47.763811      -87.641676     -0.55337906
       47.762963      -87.642010     -0.55337906
       47.762116      -87.642344     -0.56885862
       47.761268      -87.642677     -0.56111860
       47.760420      -87.643011     -0.56111860
       47.759572      -87.643345     -0.56111860
       47.758725      -87.643678     -0.55337906
       47.757877      -87.644012     -0.55337906
       47.757029      -87.644345     -0.56885862
       47.756182      -87.644678     -0.55490112
       47.755334      -87.645012     -0.56705856
       47.754486      -87.645345     -0.56705856
       47.753639      -87.645681     -0.56705856
       47.752790      -87.646014     -0.57479811
       47.751942      -87.646346     -0.55931854
       47.751095      -87.646679     -0.57479811
       47.750247      -87.647014     -0.58253813
       47.749399      -87.647348     -0.56705856
       47.748551      -87.647682     -0.56705856
       47.747705      -87.648014     -0.56705856
       47.746856      -87.648346     -0.55033493
       47.746008      -87.648680     -0.55807447
       47.745160      -87.649013     -0.55033493
       47.744312      -87.649348     -0.55807447
       47.743464      -87.649681     -0.55807447
       47.742617      -87.650014     -0.55807447
       47.741768      -87.650349     -0.55033493
       47.740921      -87.650683     -0.55033493
       47.740073      -87.651016     -0.55033493
       47.739225      -87.651349     -0.54259491
       47.738377      -87.651682     -0.54729176
       47.737529      -87.652016     -0.54729176
       47.736681      -87.652349     -0.53955173
       47.735833      -87.652683     -0.53955173
       47.734985      -87.653017     -0.54729176
       47.734136      -87.653351     -0.54729176
       47.733288      -87.653685     -0.53955173
       47.732438      -87.654018     -0.53955173
       47.731590      -87.654352     -0.53955173
       47.730742      -87.654685     -0.54729176
       47.729895      -87.655019     -0.53955173
       47.729046      -87.655352     -0.54729176
       47.728198      -87.655686     -0.53955173
       47.727350      -87.656019     -0.54729176
       47.726503      -87.656353     -0.53181219
       47.725655      -87.656687     -0.53955173
       47.724807      -87.657021     -0.53955173
       47.723959      -87.657355     -0.53181219
       47.723111      -87.657688     -0.55033493
       47.722263      -87.658021     -0.55033493
       47.721416      -87.658354     -0.53485537
       47.720569      -87.658689     -0.53333330
       47.719722      -87.659022     -0.53333330
       47.718874      -87.659356     -0.54107285
       47.718027      -87.659689     -0.54107285
       47.717178      -87.660021     -0.53333330
       47.716329      -87.660355     -0.54881287
       47.715481      -87.660688     -0.54107285
       47.714634      -87.661023     -0.52559376
       47.713787      -87.661356     -0.53333330
       47.712939      -87.661689     -0.54107285
       47.712091      -87.662022     -0.53333330
       47.711243      -87.662357     -0.53333330
       47.710396      -87.662690     -0.52559376
       47.709549      -87.663023     -0.54107285
       47.708701      -87.663356     -0.54107285
       47.707853      -87.663690     -0.54107285
       47.707005      -87.664024     -0.52559376
       47.706158      -87.664356     -0.53333330
       47.705311      -87.664691     -0.53333330
       47.704463      -87.665024     -0.54107285
       47.703616      -87.665358     -0.54107285
       47.702768      -87.665691     -0.53333330
       47.701921      -87.666024     -0.53942156
       47.701073      -87.666357     -0.54716110
       47.700226      -87.666690     -0.54716110
       47.699378      -87.667023     -0.53942156
       47.698530      -87.667357     -0.54716110
       47.697682      -87.667691     -0.53942156
       47.696834      -87.668024     -0.53942156
       47.695986      -87.668358     -0.54716110
       47.695139      -87.668691     -0.53942156
       47.694291      -87.669025     -0.53942156
       47.693443      -87.669358     -0.53320217
       47.692596      -87.669691     -0.53320217
       47.691748      -87.670023     -0.54868126
       47.690900      -87.670357     -0.52559376
       47.690053      -87.670690     -0.53333330
       47.689206      -87.671024     -0.54107285
       47.688358      -87.671358     -0.54107285
       47.687510      -87.671691     -0.53333330
       47.686662      -87.672024     -0.52559376
       47.685813      -87.672358     -0.53333330
       47.684965      -87.672692     -0.53333330
       47.684118      -87.673025     -0.52863979
       47.683270      -87.673359     -0.53637934
       47.682422      -87.673691     -0.52863979
       47.681574      -87.674023     -0.53637934
       47.680726      -87.674357     -0.53637934
       47.679878      -87.674690     -0.53637934
       47.679031      -87.675023     -0.54411888
       47.678183      -87.675357     -0.53637934
       47.677335      -87.675690     -0.55185890
       47.676487      -87.676023     -0.52863979
       47.675639      -87.676357     -0.53624344
       47.674791      -87.676690     -0.53624344
       47.673943      -87.677023     -0.54398298
       47.673096      -87.677356     -0.55172253
       47.672249      -87.677690     -0.53624344
       47.671401      -87.678023     -0.54398298
       47.670552      -87.678356     -0.55172253
       47.669704      -87.678689     -0.54398298
       47.668856      -87.679023     -0.54398298
       47.668008      -87.679357     -0.55172253
       47.667160      -87.679689     -0.54398298
       47.666313      -87.680022     -0.52407265
       47.665465      -87.680356     -0.53955173
       47.664618      -87.680690     -0.53955173
       47.663770      -87.681023     -0.52407265
       47.662922      -87.681355     -0.52407265
       47.662073      -87.681688     -0.53181219
       47.661225      -87.682022     -0.52407265
       47.660377      -87.682354     -0.53181219
       47.659530      -87.682687     -0.53955173
       47.658682      -87.683019     -0.53650665
       47.657834      -87.683353     -0.52876711
       47.656987      -87.683686     -0.53028822
       47.656140      -87.684019     -0.53802776
       47.655292      -87.684351     -0.53802776
       47.654445      -87.684684     -0.53802776
       47.653597      -87.685017     -0.53802776
       47.652748      -87.685351     -0.53028822
       47.651901      -87.685683     -0.53802776
       47.651054      -87.686017     -0.53028822
       47.650207      -87.686350     -0.53028822
       47.649358      -87.686682     -0.53028822
       47.648511      -87.687015     -0.54259491
       47.647664      -87.687348     -0.53485537
       47.646815      -87.687682     -0.53485537
       47.645968      -87.688014     -0.53485537
       47.645120      -87.688347     -0.53485537
       47.644272      -87.688679     -0.53485537
       47.643424      -87.689013     -0.53485537
       47.642576      -87.689346     -0.54259491
       47.641729      -87.689679     -0.53485537
       47.640882      -87.690012     -0.54259491
       47.640034      -87.690344     -0.53485537
       47.639186      -87.690677     -0.53637934
       47.638338      -87.691009     -0.54411888
       47.637489      -87.691342     -0.53637934
       47.636641      -87.691674     -0.54411888
       47.635793      -87.692007     -0.52863979
       47.634945      -87.692340     -0.54411888
       47.634097      -87.692673     -0.52863979
       47.633250      -87.693005     -0.54411888
       47.632402      -87.693337     -0.53637934
       47.631554      -87.693670     -0.54411888
       47.630706      -87.694001     -0.53637934
       47.629857      -87.694334     -0.54854250
       47.629009      -87.694667     -0.54080296
       47.628162      -87.695000     -0.54854250
       47.627314      -87.695333     -0.55628204
       47.626465      -87.695665     -0.56220484
       47.625617      -87.695998     -0.55446529
       47.624770      -87.696330     -0.56220484
       47.623922      -87.696662     -0.56994438
       47.623074      -87.696994     -0.56220484
       47.622226      -87.697327     -0.56220484
       47.621378      -87.697660     -0.56994438
       47.620530      -87.697992     -0.56994438
       47.619682      -87.698324     -0.56994438
       47.618834      -87.698656     -0.56220484
       47.617986      -87.698988     -0.56994438
       47.617137      -87.699321     -0.56220484
       47.616290      -87.699653     -0.56220484
       47.615442      -87.699986     -0.55446529
       47.614594      -87.700319     -0.56994438
       47.613747      -87.700653     -0.56220484
       47.612899      -87.700985     -0.56220484
       47.612051      -87.701317     -0.55917120
       47.611203      -87.701649     -0.55917120
       47.610355      -87.701981     -0.56691074
       47.609508      -87.702313     -0.55143166
       47.608660      -87.702645     -0.55917120
       47.607812      -87.702978     -0.55917120
       47.606965      -87.703310     -0.55917120
       47.606117      -87.703642     -0.55917120
       47.605268      -87.703972     -0.55917120
       47.604420      -87.704305     -0.55917120
       47.603573      -87.704638     -0.54383945
       47.602726      -87.704971     -0.55157900
       47.601878      -87.705304     -0.53609943
       47.601030      -87.705635     -0.55157900
       47.600182      -87.705967     -0.54383945
       47.599334      -87.706299     -0.55157900
       47.598486      -87.706631     -0.55931854
       47.597638      -87.706963     -0.55157900
       47.596791      -87.707295     -0.55157900
       47.595944      -87.707628     -0.54383945
       47.595096      -87.707961     -0.55157900
       47.594247      -87.708293     -0.53028822
       47.593399      -87.708625     -0.52254868
       47.592552      -87.708957     -0.52254868
       47.591704      -87.709289     -0.52254868
       47.590856      -87.709620     -0.53028822
       47.590009      -87.709951     -0.53028822
       47.589162      -87.710283     -0.53028822
       47.588313      -87.710615     -0.51480865
       47.587465      -87.710947     -0.53028822
       47.586617      -87.711279     -0.52254868
       47.585769      -87.711611     -0.53028822
       47.584921      -87.711943     -0.53320217
       47.584074      -87.712275     -0.54094172
       47.583226      -87.712606     -0.54094172
       47.582378      -87.712938     -0.52546215
       47.581530      -87.713270     -0.54868126
       47.580683      -87.713602     -0.54094172
       47.579835      -87.713934     -0.53320217
       47.578986      -87.714265     -0.54094172
       47.578139      -87.714597     -0.53320217
       47.577290      -87.714930     -0.54094172
       47.576442      -87.715262     -0.54550314
       47.575595      -87.715593     -0.53776360
       47.574747      -87.715925     -0.54550314
       47.573898      -87.716258     -0.54550314
       47.573050      -87.716589     -0.53776360
       47.572202      -87.716919     -0.53002357
       47.571354      -87.717251     -0.53776360
       47.570505      -87.717583     -0.53776360
       47.569658      -87.717915     -0.53002357
       47.568810      -87.718247     -0.53002357
       47.567962      -87.718578     -0.54550314
       47.567113      -87.718909     -0.53168201
       47.566265      -87.719242     -0.52394199
       47.565417      -87.719574     -0.53942156
       47.564569      -87.719905     -0.53168201
       47.563721      -87.720236     -0.53168201
       47.562873      -87.720568     -0.53168201
       47.562025      -87.720900     -0.53002357
       47.561178      -87.721231     -0.53776360
       47.560330      -87.721563     -0.54550314
       47.559482      -87.721895     -0.55324268
       47.558634      -87.722226     -0.53333330
       47.557785      -87.722557     -0.52559376
       47.556938      -87.722888     -0.53333330
       47.556090      -87.723220     -0.52559376
       47.555242      -87.723552     -0.52559376
       47.554393      -87.723883     -0.52559376
       47.553546      -87.724214     -0.53333330
       47.552698      -87.724546     -0.52559376
       47.551850      -87.724878     -0.52559376
       47.551002      -87.725209     -0.53333330
       47.550154      -87.725541     -0.54107285
       47.549306      -87.725872     -0.52876711
       47.548458      -87.726203     -0.52876711
       47.547610      -87.726535     -0.52876711
       47.546762      -87.726867     -0.53650665
       47.545913      -87.727199     -0.52876711
       47.545065      -87.727530     -0.51328754
       47.544217      -87.727861     -0.52876711
       47.543369      -87.728193     -0.53650665
       47.542521      -87.728524     -0.52876711
       47.541673      -87.728855     -0.53650665
       47.540825      -87.729187     -0.53650665
       47.539977      -87.729518     -0.52888870
       47.539129      -87.729850     -0.52888870
       47.538281      -87.730182     -0.51340961
       47.537433      -87.730513     -0.52888870
       47.536585      -87.730843     -0.52114916
       47.535737      -87.731175     -0.52888870
       47.534889      -87.731506     -0.52888870
       47.534042      -87.731838     -0.52114916
       47.533194      -87.732169     -0.51340961
       47.532346      -87.732501     -0.52114916
       47.531498      -87.732832     -0.52736473
       47.530650      -87.733163     -0.51962519
       47.529802      -87.733494     -0.51962519
       47.528955      -87.733826     -0.52431583
       47.528107      -87.734158     -0.51657629
       47.527259      -87.734488     -0.52431583
       47.526410      -87.734820     -0.50883675
       47.525562      -87.735152     -0.50883675
       47.524714      -87.735483     -0.52431583
       47.523865      -87.735814     -0.51657629
       47.523018      -87.736145     -0.50883675
       47.522171      -87.736478     -0.51962519
       47.521323      -87.736809     -0.51962519
       47.510298      -87.741114     -0.54424667
       47.509450      -87.741445     -0.55972624
       47.508602      -87.741777     -0.55972624
       47.507754      -87.742109     -0.54424667
       47.506905      -87.742439     -0.54424667
       47.506057      -87.742771     -0.55198622
       47.505209      -87.743102     -0.54424667
       47.504363      -87.743435     -0.55337906
       47.503514      -87.743765     -0.56111860
       47.502666      -87.744096     -0.55337906
       47.501818      -87.744427     -0.55337906
       47.500970      -87.744759     -0.55337906
       47.500121      -87.745090     -0.55337906
       47.499273      -87.745421     -0.54563904
       47.498425      -87.745751     -0.54563904
       47.497576      -87.746083     -0.54563904
       47.496729      -87.746415     -0.53967571
       47.495882      -87.746747     -0.52419615
       47.495034      -87.747079     -0.52888870
       47.494186      -87.747409     -0.52888870
       47.493337      -87.747740     -0.52888870
       47.492489      -87.748071     -0.52114916
       47.491641      -87.748403     -0.53662872
       47.490793      -87.748734     -0.52888870
       47.489945      -87.749065     -0.53662872
       47.489097      -87.749396     -0.54436827
       47.488249      -87.749727     -0.54436827
       47.487401      -87.750059     -0.54436827
       47.486552      -87.750390     -0.50752258
       47.485705      -87.750721     -0.52300215
       47.484857      -87.751052     -0.51526260
       47.484009      -87.751383     -0.51526260
       47.483162      -87.751714     -0.52300215
       47.482313      -87.752045     -0.52300215
       47.481465      -87.752376     -0.52300215
       47.480616      -87.752708     -0.52300215
       47.479768      -87.753040     -0.53848171
       47.478920      -87.753370     -0.53848171
       47.478073      -87.753701     -0.53074217
       47.477226      -87.754033     -0.53551817
       47.476378      -87.754364     -0.52777863
       47.475530      -87.754695     -0.52777863
       47.474681      -87.755026     -0.52777863
       47.473833      -87.755356     -0.53551817
       47.472985      -87.755687     -0.54325819
       47.472137      -87.756019     -0.54325819
       47.471289      -87.756351     -0.53551817
       47.470441      -87.756681     -0.54325819
       47.469594      -87.757012     -0.54325819
       47.468746      -87.757344     -0.55099773
       47.467898      -87.757675     -0.16136265
       47.467050      -87.758006     -0.16136265
       47.466202      -87.758336     -0.17684174
       47.465354      -87.758667     -0.17684174
       47.464506      -87.758999    -0.018061161
       47.463659      -87.759331    -0.025801182
       47.462811      -87.759662    -0.033540726
       47.461964      -87.759992    -0.064499855
       47.461115      -87.760322     -0.11093807
       47.460266      -87.760653     -0.26573277
       47.459418      -87.760985     -0.52083969
       47.458570      -87.761315     -0.88858986
       47.457723      -87.761646     -0.94579601
       47.456876      -87.761977      -1.0030012
       47.456027      -87.762308      -1.0275183
       47.455179      -87.762639      -1.0438623
       47.454331      -87.762969      -1.0602074
       47.453483      -87.763301      -1.1092405
       47.452635      -87.763632      -1.0847235
       47.451787      -87.763963      -1.1255846
       47.450939      -87.764293      -1.1419296
       47.450092      -87.764623     -0.92142296
       47.449244      -87.764953     -0.88056183
       47.448395      -87.765285     -0.80701160
       47.447547      -87.765616     -0.81518364
       47.328807      -87.811806     -0.42425919
       47.327959      -87.812135     -0.43199873
       47.327111      -87.812463     -0.42425919
       47.326263      -87.812792     -0.41651917
       47.325414      -87.813122     -0.40877962
       47.324566      -87.813452     -0.43531418
       47.323718      -87.813781     -0.41983461
       47.322870      -87.814110     -0.42757416
       47.322022      -87.814439     -0.43531418
       47.321174      -87.814767     -0.41983461
       47.320326      -87.815095     -0.42757416
       47.319478      -87.815425     -0.41209459
       47.318629      -87.815756     -0.41983461
       47.317781      -87.816086     -0.41983461
       47.316934      -87.816414     -0.41209459
       47.316086      -87.816743     -0.41209459
       47.315238      -87.817072     -0.42456961
       47.314390      -87.817403     -0.41682959
       47.313542      -87.817730     -0.42456961
       47.312694      -87.818059     -0.40909004
       47.311846      -87.818389     -0.40909004
       47.310998      -87.818718     -0.40909004
       47.310149      -87.819048     -0.40135050
       47.309300      -87.819377     -0.40135050
       47.308453      -87.819705     -0.40909004
       47.307604      -87.820033     -0.40135050
       47.306756      -87.820362     -0.38587093
       47.305908      -87.820691     -0.41238928
       47.305060      -87.821022     -0.41238928
       47.304211      -87.821350     -0.42786837
       47.303363      -87.821679     -0.42012882
       47.302515      -87.822009     -0.42012882
       47.301667      -87.822338     -0.43587208
       47.300819      -87.822667     -0.41265297
       47.299971      -87.822997     -0.41265297
       47.299121      -87.823326     -0.41265297
       47.298273      -87.823655     -0.39717340
       47.297426      -87.823984     -0.39415359
       47.296578      -87.824311     -0.40189314
       47.295730      -87.824640     -0.40189314
       47.294881      -87.824969     -0.40189314
       47.294032      -87.825299     -0.39415359
       47.293184      -87.825628     -0.39415359
       47.292336      -87.825956     -0.40189314
       47.291489      -87.826285     -0.39415359
       47.290641      -87.826614     -0.38641357
       47.289793      -87.826943     -0.40189314
       47.288945      -87.827272     -0.39415359
       47.288096      -87.827601     -0.38484001
       47.287248      -87.827930     -0.37710047
       47.286400      -87.828259     -0.37710047
       47.285552      -87.828588     -0.37710047
       47.284703      -87.828918     -0.37710047
       47.283855      -87.829247     -0.37710047
       47.283007      -87.829576     -0.36936045
       47.282159      -87.829905     -0.38484001
       47.281311      -87.830233     -0.40031958
       47.280463      -87.830562     -0.39258003
       47.279615      -87.830891     -0.42858362
       47.278767      -87.831220     -0.42858362
       47.277919      -87.831550     -0.43632317
       47.277071      -87.831878     -0.43632317
       47.276223      -87.832206     -0.44406319
       47.275375      -87.832534     -0.43632317
       47.274527      -87.832864     -0.43632317
       47.273679      -87.833193     -0.42858362
       47.272830      -87.833521     -0.43632317
       47.271982      -87.833850     -0.43632317
       47.271134      -87.834180     -0.43632317
       47.270286      -87.834509     -0.45050478
       47.269438      -87.834838     -0.42728567
       47.268589      -87.835166     -0.41623592
       47.267741      -87.835494     -0.40075636
       47.266893      -87.835822     -0.40849638
       47.266045      -87.836151     -0.41623592
       47.265197      -87.836480     -0.42397594
       47.264349      -87.836810     -0.40849638
       47.263500      -87.837138     -0.42397594
       47.262652      -87.837466     -0.41623592
       47.261804      -87.837795     -0.42397594
       47.260955      -87.838125     -0.44276524
       47.260107      -87.838454     -0.44276524
       47.259259      -87.838783     -0.44276524
       47.258411      -87.839111     -0.39632654
       47.257563      -87.839439     -0.36536789
       47.256714      -87.839768     -0.34988832
       47.255866      -87.840097     -0.34214830
       47.255018      -87.840426     -0.35762787
       47.254170      -87.840755     -0.34988832
       47.253322      -87.841083     -0.34988832
       47.252473      -87.841411     -0.37331629
       47.251625      -87.841740     -0.38105583
       47.250777      -87.842069     -0.36557627
       47.249928      -87.842399     -0.37331629
       47.249081      -87.842728     -0.37331629
       47.248231      -87.843056     -0.38879585
       47.247383      -87.843385     -0.38105583
       47.246535      -87.843714     -0.38105583
       47.245685      -87.844043     -0.38105583
       47.244838      -87.844372     -0.38105583
       47.243990      -87.844700     -0.36557627
       47.243141      -87.845028     -0.40597916
       47.242293      -87.845356     -0.39049959
       47.241445      -87.845686     -0.40597916
       47.240597      -87.846015     -0.39823961
       47.239749      -87.846344     -0.39049959
       47.238900      -87.846673     -0.41371918
       47.238052      -87.847002     -0.39823961
       47.237203      -87.847332     -0.39823961
       47.236355      -87.847659     -0.38423014
       47.235507      -87.847986     -0.38423014
       47.234659      -87.848315     -0.41225100
       47.233810      -87.848645     -0.41999102
       47.232962      -87.848974     -0.41999102
       47.232114      -87.849303     -0.42773056
       47.231266      -87.849632     -0.41999102
       47.230417      -87.849960     -0.41225100
       47.229569      -87.850287     -0.42773056
       47.228721      -87.850616     -0.42773056
       47.227873      -87.850944     -0.42773056
       47.227024      -87.851273     -0.41999102
       47.226176      -87.851602     -0.42773056
       47.225328      -87.851931     -0.48033047
       47.224480      -87.852259     -0.46485090
       47.223632      -87.852588     -0.47259092
       47.222783      -87.852917     -0.47259092
       47.221935      -87.853245     -0.46485090
       47.221087      -87.853574     -0.47259092
       47.220239      -87.853903     -0.46485090
       47.219391      -87.854232     -0.46485090
       47.218541      -87.854560     -0.45711136
       47.217693      -87.854889     -0.44937181
       47.216845      -87.855217     -0.45711136
       47.215997      -87.855545     -0.43549061
       47.215149      -87.855873     -0.42775106
       47.214301      -87.856201     -0.43549061
       47.213453      -87.856529     -0.42775106
       47.212604      -87.856857     -0.43549061
       47.211756      -87.857185     -0.42775106
       47.210907      -87.857514     -0.44323015
       47.210058      -87.857841     -0.44323015
       47.209209      -87.858170     -0.44323015
       47.208361      -87.858499     -0.45097017
       47.207513      -87.858829     -0.47564268
       47.206664      -87.859156     -0.47564268
       47.205815      -87.859484     -0.46790314
       47.204967      -87.859812     -0.46016359
       47.204120      -87.860140     -0.46016359
       47.203272      -87.860468     -0.47406197
       47.202423      -87.860796     -0.46632242
       47.201575      -87.861125     -0.45084286
       47.200726      -87.861453     -0.45858240
       47.199878      -87.861782     -0.45084286
       47.199030      -87.862111     -0.45084286
       47.198181      -87.862440     -0.46473837
       47.197332      -87.862768     -0.46473837
       47.196484      -87.863096     -0.45699883
       47.195636      -87.863424     -0.45699883
       47.194787      -87.863753     -0.45699883
       47.193939      -87.864082     -0.46473837
       47.193090      -87.864409     -0.45699883
       47.192242      -87.864737     -0.44925880
       47.191393      -87.865065     -0.45699883
       47.190545      -87.865394     -0.44925880
       47.189697      -87.865722     -0.45541096
       47.188848      -87.866051     -0.45541096
       47.187999      -87.866379     -0.46315098
       47.187151      -87.866707     -0.47089052
       47.186303      -87.867035     -0.46315098
       47.185455      -87.867363     -0.44767141
       47.184607      -87.867691     -0.46315098
       47.183759      -87.868019     -0.45541096
       47.182910      -87.868347     -0.45541096
       47.182061      -87.868675     -0.45541096
       47.181213      -87.869003     -0.44767141
       47.180364      -87.869332     -0.44305849
       47.179516      -87.869661     -0.46627760
       47.178667      -87.869989     -0.45853806
       47.177819      -87.870317     -0.45079803
       47.176971      -87.870644     -0.45079803
       47.176123      -87.870971     -0.45079803
       47.175275      -87.871299     -0.44305849
       47.174427      -87.871626     -0.44305849
       47.173578      -87.871955     -0.43531895
       47.172730      -87.872283     -0.44305849
       47.171882      -87.872611     -0.45079803
       47.171033      -87.872940     -0.42916298
       47.170185      -87.873268     -0.44305849
       47.169336      -87.873596     -0.45079803
       47.168488      -87.873923     -0.44305849
       47.167639      -87.874251     -0.45079803
       47.166792      -87.874579     -0.44305849
       47.165944      -87.874907     -0.45079803
       47.165095      -87.875235     -0.45079803
       47.164246      -87.875562     -0.45079803
       47.163398      -87.875890     -0.44305849
       47.162550      -87.876218     -0.42300510
       47.161702      -87.876546     -0.43074465
       47.160854      -87.876873     -0.43074465
       47.160005      -87.877200     -0.42300510
       47.159157      -87.877527     -0.43074465
       47.158308      -87.877855     -0.42300510
       47.157459      -87.878183     -0.42300510
       47.156611      -87.878511     -0.42300510
       47.155763      -87.878839     -0.42300510
       47.154915      -87.879167     -0.41526508
       47.154066      -87.879495     -0.41526508
       47.153216      -87.879823     -0.40293312
       47.152368      -87.880151     -0.41841269
       47.151520      -87.880478     -0.41067314
       47.150671      -87.880805     -0.41067314
       47.149823      -87.881133     -0.41841269
       47.148974      -87.881460     -0.41841269
       47.148124      -87.881788     -0.42615223
       47.147276      -87.882115     -0.42615223
       47.146428      -87.882442     -0.41067314
       47.145580      -87.882770     -0.41067314
       47.144732      -87.883097     -0.43386173
       47.143883      -87.883425     -0.42612219
       47.143034      -87.883753     -0.42612219
       47.142186      -87.884080     -0.41838264
       47.141337      -87.884407     -0.41838264
       47.140488      -87.884734     -0.41838264
       47.139640      -87.885061     -0.41838264
       47.138792      -87.885389     -0.42612219
       47.137944      -87.885716     -0.42454243
       47.137096      -87.886044     -0.41680241
       47.136246      -87.886371     -0.40906286
       47.135398      -87.886699     -0.41988373
       47.134550      -87.887026     -0.42762375
       47.133701      -87.887353     -0.41988373
       47.132853      -87.887680     -0.42762375
       47.132005      -87.888008     -0.41988373
       47.131157      -87.888336     -0.41988373
       47.130309      -87.888662     -0.41214418
       47.129460      -87.888989     -0.41988373
       47.128611      -87.889316     -0.41988373
       47.127762      -87.889644     -0.41988373
       47.126914      -87.889973     -0.42762375
       47.126066      -87.890300     -0.40910244
       47.125218      -87.890626     -0.41684246
       47.124370      -87.890953     -0.40136290
       47.123521      -87.891281     -0.40136290
       47.122673      -87.891608     -0.40910244
       47.121825      -87.891936     -0.41684246
       47.120976      -87.892262     -0.41684246
       47.120128      -87.892589     -0.40910244
       47.119279      -87.892916     -0.40136290
       47.118431      -87.893242     -0.40136290
       47.117583      -87.893570     -0.40290308
       47.116734      -87.893897     -0.40290308
       47.115885      -87.894225     -0.40290308
       47.115037      -87.894552     -0.40290308
       47.114189      -87.894879     -0.39516306
       47.113340      -87.895206     -0.40290308
       47.112492      -87.895532     -0.40290308
       47.111644      -87.895860     -0.38742352
       47.110795      -87.896187     -0.38742352
       47.109946      -87.896515     -0.39516306
       47.109098      -87.896842     -0.40290308
       47.108249      -87.897168     -0.40598536
       47.107401      -87.897495     -0.42146492
       47.106553      -87.897822     -0.40598536
       47.105704      -87.898149     -0.41372490
       47.104855      -87.898476     -0.41992283
       47.104007      -87.898804     -0.42766237
       47.103158      -87.899130     -0.41992283
       47.102310      -87.899457     -0.41992283
       47.101462      -87.899784     -0.42766237
       47.100614      -87.900111     -0.41992283
       47.099764      -87.900439     -0.40915346
       47.098915      -87.900765     -0.41689301
       47.098067      -87.901092     -0.41689301
       47.097219      -87.901419     -0.40141392
       47.096371      -87.901746     -0.40141392
       47.095522      -87.902073     -0.40141392
       47.094674      -87.902398     -0.40915346
       47.093825      -87.902725     -0.41689301
       47.092977      -87.903052     -0.40915346
       47.092128      -87.903379     -0.41689301
       47.091279      -87.903705     -0.39367390
       47.090431      -87.904032     -0.38749504
       47.089582      -87.904360     -0.37975550
       47.088734      -87.904688     -0.38749504
       47.087885      -87.905014     -0.37201548
       47.087036      -87.905340     -0.37201548
       47.086188      -87.905667     -0.37201548
       47.085340      -87.905993     -0.37201548
       47.084492      -87.906320     -0.38749504
       47.083643      -87.906646     -0.38749504
       47.082794      -87.906972     -0.40297461
       47.081946      -87.907300     -0.39523506
       47.081098      -87.907628     -0.39679193
       47.080250      -87.907955     -0.38905239
       47.079401      -87.908282     -0.38131237
       47.078553      -87.908608     -0.38905239
       47.077704      -87.908935     -0.38905239
       47.076856      -87.909260     -0.38905239
       47.076007      -87.909588     -0.38905239
       47.075159      -87.909916     -0.38131237
       47.074311      -87.910242     -0.38131237
       47.073463      -87.910569     -0.38905239
       47.072615      -87.910895     -0.36892509
       47.071766      -87.911221     -0.36272717
       47.070917      -87.911548     -0.35498714
       47.070069      -87.911874     -0.34724760
       47.069220      -87.912202     -0.36272717
       47.068372      -87.912530     -0.35498714
       47.067523      -87.912855     -0.35498714
       47.066675      -87.913182     -0.36272717
       47.065827      -87.913509     -0.36272717
       47.064977      -87.913837     -0.37820625
       47.064129      -87.914163     -0.39368582
       47.063281      -87.914489     -0.35491371
       47.062433      -87.914816     -0.37039328
       47.061584      -87.915142     -0.37039328
       47.060737      -87.915470     -0.36265373
       47.059888      -87.915797     -0.37813330
       47.059039      -87.916123     -0.37813330
       47.058190      -87.916450     -0.38587284
       47.057342      -87.916776     -0.38587284
       47.056494      -87.917103     -0.38587284
       47.055645      -87.917430     -0.39361238
       47.054796      -87.917757     -0.39361238
       47.053948      -87.918083     -0.37481499
       47.053099      -87.918409     -0.37481499
       47.052251      -87.918735     -0.35159588
       47.051403      -87.919062     -0.38255501
       47.050554      -87.919389     -0.36707544
       47.049706      -87.919717     -0.37481499
       47.048857      -87.920043     -0.39029455
       47.048009      -87.920369     -0.39029455
       47.047160      -87.920695     -0.37481499
       47.046311      -87.921022     -0.37481499
       47.045463      -87.921349     -0.39653540
       47.044615      -87.921676     -0.38879585
       47.043766      -87.922002     -0.41201496
       47.042918      -87.922327     -0.40427494
       47.042069      -87.922654     -0.40427494
       47.041221      -87.922981     -0.41201496
       47.040372      -87.923308     -0.41975451
       47.039523      -87.923635     -0.39653540
       47.038675      -87.923961     -0.44784451
       47.037827      -87.924288     -0.44784451
       47.036979      -87.924614     -0.44010496
       47.036131      -87.924940     -0.35275412
       47.035282      -87.925265     -0.35275412
       47.034433      -87.925593     -0.35275412
       47.033585      -87.925920     -0.33727455
       47.032737      -87.926246     -0.32953501
       47.031888      -87.926572     -0.34501457
       47.031039      -87.926899     -0.33727455
       47.030191      -87.927226     -0.33727455
       47.029343      -87.927553     -0.33727455
       47.028495      -87.927878     -0.33727455
       47.027647      -87.928204     -0.31238508
       47.026798      -87.928530     -0.29690599
       47.025950      -87.928856     -0.25820732
       47.025101      -87.929184     -0.25820732
       47.024253      -87.929511     -0.25820732
       47.023404      -87.929838     -0.25046730
       47.022556      -87.930164     -0.24272776
       47.021707      -87.930490     -0.23498774
       47.020859      -87.930816     -0.24272776
       47.020011      -87.931142     -0.25046730
       47.019163      -87.931468     -0.24272776
       47.018314      -87.931795     -0.20026255
       47.017466      -87.932122     -0.20026255
       47.016617      -87.932448     -0.19252253
       47.015768      -87.932774     -0.20026255
       47.014920      -87.933101     -0.20800209
       47.014071      -87.933427     -0.20800209
       47.013223      -87.933752     -0.21574211
       47.012375      -87.934078     -0.22348166
       47.011526      -87.934405     -0.22348166
       47.010678      -87.934731     -0.22348166
       47.009829      -87.935057     -0.22348166
       47.008979      -87.935383     -0.17765379
       47.008131      -87.935709     -0.18539333
       47.007283      -87.936035     -0.17765379
       47.006435      -87.936362     -0.16338110
       47.005586      -87.936689     -0.17112064
       47.004737      -87.937016     -0.17112064
       47.003889      -87.937342     -0.17112064
       47.003040      -87.937666     -0.17112064
       47.002192      -87.937992     -0.17112064
       47.001343      -87.938318     -0.17112064
       47.000494      -87.938645     -0.13477850
       46.999645      -87.938972     -0.13477850
       46.998797      -87.939298     -0.13477850
       46.997949      -87.939624     -0.13477850
       46.997100      -87.939949     -0.12703896
       46.996252      -87.940275     -0.12703896
       46.995403      -87.940601     -0.11929893
       46.994555      -87.940927     -0.12703896
       46.993706      -87.941254     -0.12703896
       46.992857      -87.941579     -0.13477850
       46.992008      -87.941905     -0.12703896
       46.991159      -87.942232     -0.10473061
       46.990310      -87.942557     -0.10473061
       46.989462      -87.942883    -0.089251041
       46.988613      -87.943210     -0.10473061
       46.987765      -87.943536     -0.10473061
       46.986917      -87.943862    -0.096990585
       46.986068      -87.944188     -0.10473061
       46.985219      -87.944513     -0.10473061
       46.984370      -87.944839    -0.096990585
       46.983522      -87.945165     -0.10473061
       46.982673      -87.945491    -0.085309505
       46.981824      -87.945816    -0.093049049
       46.980975      -87.946143    -0.077569962
       46.980126      -87.946470    -0.085309505
       46.979278      -87.946795    -0.077569962
       46.978429      -87.947120    -0.093049049
       46.977580      -87.947445     -0.10852861
       46.976732      -87.947770    -0.093049049
       46.975883      -87.948096    -0.093049049
       46.975035      -87.948423     -0.10852861
       46.974186      -87.948748     -0.10852861
       46.973337      -87.949074    -0.031087399
       46.972489      -87.949400    -0.031087399
       46.971640      -87.949726    -0.054306507
       46.970792      -87.950052    -0.062046051
       46.969943      -87.950377    -0.077525616
       46.969094      -87.950703     -0.10074472
       46.968245      -87.951029     -0.10848475
       46.967397      -87.951354     -0.14718342
       46.966548      -87.951680     -0.17040253
       46.965699      -87.952005     -0.17814207
       46.964851      -87.952330     -0.18588209
       46.964002      -87.952657     -0.11093807
       46.963154      -87.952983     -0.11093807
       46.962306      -87.953308     -0.11867762
       46.961458      -87.953633     -0.12641764
       46.960609      -87.953958     -0.13415718
       46.959760      -87.954285     -0.14963675
       46.958912      -87.954611     -0.15737629
       46.958064      -87.954936     -0.14963675
       46.957214      -87.955262     -0.15737629
       46.956365      -87.955588     -0.15737629
       46.955517      -87.955914     -0.29346991
       46.954670      -87.956239     -0.30894947
       46.953821      -87.956563     -0.30120945
       46.952973      -87.956888     -0.30120945
       46.952125      -87.957214     -0.29346991
       46.951276      -87.957540     -0.29346991
       46.950427      -87.957866     -0.30894947
       46.949578      -87.958191     -0.33990812
       46.948730      -87.958517     -0.47148371
       46.947881      -87.958842     -0.72689486
       46.947032      -87.959168     -0.44826460
       46.946184      -87.959493     -0.10230684
       46.945335      -87.959818    -0.079087734
       46.944487      -87.960143    -0.086827278
       46.943639      -87.960469    -0.071347713
       46.942790      -87.960794    -0.063608170
       46.941942      -87.961119    -0.071347713
       46.941093      -87.961444    -0.071347713
       46.940245      -87.961770    -0.067177773
       46.939396      -87.962096    -0.074917793
       46.938547      -87.962421    -0.067177773
       46.937699      -87.962746    -0.045366287
       46.936851      -87.963071    -0.045366287
       46.936002      -87.963396    -0.045366287
       46.935153      -87.963721    -0.053105831
       46.934303      -87.964047    -0.045366287
       46.933455      -87.964372    -0.053105831
       46.932607      -87.964698    -0.068585396
       46.931759      -87.965023    -0.084064960
       46.930910      -87.965347    -0.099544048
       46.930062      -87.965672     -0.10728407
       46.929213      -87.965997     -0.12276363
       46.928364      -87.966322    -0.092103004
       46.927516      -87.966648     -0.11532259
       46.926667      -87.966973     -0.13080168
       46.925818      -87.967298     -0.13854170
       46.924969      -87.967623     -0.14628124
       46.924121      -87.967948     -0.11532259
       46.923272      -87.968272    -0.092103004
       46.922424      -87.968598    -0.099843025
       46.921575      -87.968924     -0.10758257
       46.920725      -87.969248     -0.11532259
       46.919876      -87.969573     -0.10758257
       46.919029      -87.969898    -0.019667149
       46.918180      -87.970223    -0.050626278
       46.917331      -87.970548    -0.066105366
       46.916483      -87.970873    -0.081584930
       46.915634      -87.971198    -0.089324951
       46.914784      -87.971523    -0.097064495
       46.913935      -87.971848     -0.10480404
       46.913087      -87.972174     -0.10480404
       46.912239      -87.972498    -0.097064495
       46.911391      -87.972823    -0.058365822
       46.910543      -87.973148     0.071132660
       46.909694      -87.973473     0.047913551
       46.908845      -87.973797     0.016954422
       46.907997      -87.974122    0.0014748573
       46.907147      -87.974447    -0.026534081
       46.906299      -87.974773    -0.057493210
       46.905451      -87.975098     -0.10393143
       46.904603      -87.975423     -0.33612347
       46.903754      -87.975747     -0.52711868
       46.902905      -87.976072     -0.55163527
       46.902056      -87.976397     -0.60884094
       46.901208      -87.976721     -0.54218531
       46.900360      -87.977046     -0.55035734
       46.899512      -87.977371     -0.59121847
       46.898663      -87.977695     -0.69745731
       46.897814      -87.978022     -0.76283550
       46.896965      -87.978347     -0.72197437
       46.896116      -87.978671     -0.64842415
       46.895269      -87.978996     -0.68111324
       46.894420      -87.979321     -0.71380234
       46.893572      -87.979646     -0.72197437
       46.892724      -87.979969     -0.52701473
       46.891875      -87.980295     -0.49432611
       46.891027      -87.980621     -0.50249815
       46.890178      -87.980946     -0.51067066
       46.889330      -87.981270     -0.50249815
       46.888482      -87.981594     -0.52701473
       46.887633      -87.981919     -0.53518677
       46.886785      -87.982245     -0.54335976
       46.885936      -87.982570     -0.59239292
       46.885087      -87.982895     -0.55970383
       46.884238      -87.983220     -0.51884270
       46.883390      -87.983545     -0.36982870
       46.882542      -87.983868     -0.35348415
       46.881694      -87.984193     -0.36982870
       46.880845      -87.984519     -0.41886234
